digraph Tree {
node [shape=box] ;
0 [label="X[24] <= 1.534\nentropy = 1.033\nsamples = 4622\nvalue = [2302, 2302, 18]"] ;
1 [label="X[8] <= 1.724\nentropy = 1.006\nsamples = 1326\nvalue = [756, 567, 3]"] ;
0 -> 1 [labeldistance=2.5, labelangle=45, headlabel="True"] ;
2 [label="X[17] <= -0.5\nentropy = 1.0\nsamples = 633\nvalue = [317, 316, 0]"] ;
1 -> 2 ;
3 [label="X[1] <= 1.5\nentropy = 0.722\nsamples = 30\nvalue = [6, 24, 0]"] ;
2 -> 3 ;
4 [label="X[16] <= 10.0\nentropy = 0.961\nsamples = 13\nvalue = [5, 8, 0]"] ;
3 -> 4 ;
5 [label="X[1] <= 0.5\nentropy = 0.991\nsamples = 9\nvalue = [5, 4, 0]"] ;
4 -> 5 ;
6 [label="entropy = 0.918\nsamples = 6\nvalue = [2, 4, 0]"] ;
5 -> 6 ;
7 [label="entropy = 0.0\nsamples = 3\nvalue = [3, 0, 0]"] ;
5 -> 7 ;
8 [label="entropy = 0.0\nsamples = 4\nvalue = [0, 4, 0]"] ;
4 -> 8 ;
9 [label="X[0] <= 6.0\nentropy = 0.323\nsamples = 17\nvalue = [1, 16, 0]"] ;
3 -> 9 ;
10 [label="X[14] <= 0.318\nentropy = 1.0\nsamples = 2\nvalue = [1, 1, 0]"] ;
9 -> 10 ;
11 [label="entropy = 0.0\nsamples = 1\nvalue = [1, 0, 0]"] ;
10 -> 11 ;
12 [label="entropy = 0.0\nsamples = 1\nvalue = [0, 1, 0]"] ;
10 -> 12 ;
13 [label="entropy = 0.0\nsamples = 15\nvalue = [0, 15, 0]"] ;
9 -> 13 ;
14 [label="X[1] <= -0.5\nentropy = 0.999\nsamples = 603\nvalue = [311, 292, 0]"] ;
2 -> 14 ;
15 [label="X[26] <= 0.682\nentropy = 0.691\nsamples = 27\nvalue = [22, 5, 0]"] ;
14 -> 15 ;
16 [label="X[17] <= 1.5\nentropy = 0.831\nsamples = 19\nvalue = [14, 5, 0]"] ;
15 -> 16 ;
17 [label="entropy = 0.991\nsamples = 9\nvalue = [5, 4, 0]"] ;
16 -> 17 ;
18 [label="entropy = 0.469\nsamples = 10\nvalue = [9, 1, 0]"] ;
16 -> 18 ;
19 [label="entropy = 0.0\nsamples = 8\nvalue = [8, 0, 0]"] ;
15 -> 19 ;
20 [label="X[12] <= 0.022\nentropy = 1.0\nsamples = 576\nvalue = [289, 287, 0]"] ;
14 -> 20 ;
21 [label="X[18] <= 4.0\nentropy = 1.0\nsamples = 565\nvalue = [279, 286, 0]"] ;
20 -> 21 ;
22 [label="entropy = 1.0\nsamples = 560\nvalue = [274, 286, 0]"] ;
21 -> 22 ;
23 [label="entropy = 0.0\nsamples = 5\nvalue = [5, 0, 0]"] ;
21 -> 23 ;
24 [label="X[16] <= 7.0\nentropy = 0.439\nsamples = 11\nvalue = [10, 1, 0]"] ;
20 -> 24 ;
25 [label="entropy = 0.0\nsamples = 1\nvalue = [0, 1, 0]"] ;
24 -> 25 ;
26 [label="entropy = 0.0\nsamples = 10\nvalue = [10, 0, 0]"] ;
24 -> 26 ;
27 [label="X[10] <= 2.792\nentropy = 0.982\nsamples = 693\nvalue = [439, 251, 3]"] ;
1 -> 27 ;
28 [label="X[19] <= 77.5\nentropy = 0.881\nsamples = 378\nvalue = [271, 106, 1]"] ;
27 -> 28 ;
29 [label="X[1] <= 8.5\nentropy = 0.855\nsamples = 375\nvalue = [270, 105, 0]"] ;
28 -> 29 ;
30 [label="X[27] <= 0.763\nentropy = 0.831\nsamples = 354\nvalue = [261, 93, 0]"] ;
29 -> 30 ;
31 [label="entropy = 0.805\nsamples = 337\nvalue = [254, 83, 0]"] ;
30 -> 31 ;
32 [label="entropy = 0.977\nsamples = 17\nvalue = [7, 10, 0]"] ;
30 -> 32 ;
33 [label="X[27] <= 0.677\nentropy = 0.985\nsamples = 21\nvalue = [9, 12, 0]"] ;
29 -> 33 ;
34 [label="entropy = 0.811\nsamples = 16\nvalue = [4, 12, 0]"] ;
33 -> 34 ;
35 [label="entropy = 0.0\nsamples = 5\nvalue = [5, 0, 0]"] ;
33 -> 35 ;
36 [label="X[9] <= 0.483\nentropy = 1.585\nsamples = 3\nvalue = [1, 1, 1]"] ;
28 -> 36 ;
37 [label="entropy = 0.0\nsamples = 1\nvalue = [1, 0, 0]"] ;
36 -> 37 ;
38 [label="X[4] <= 252.5\nentropy = 1.0\nsamples = 2\nvalue = [0, 1, 1]"] ;
36 -> 38 ;
39 [label="entropy = 0.0\nsamples = 1\nvalue = [0, 0, 1]"] ;
38 -> 39 ;
40 [label="entropy = 0.0\nsamples = 1\nvalue = [0, 1, 0]"] ;
38 -> 40 ;
41 [label="X[1] <= 1.5\nentropy = 1.045\nsamples = 315\nvalue = [168, 145, 2]"] ;
27 -> 41 ;
42 [label="X[15] <= 0.004\nentropy = 0.965\nsamples = 67\nvalue = [47, 19, 1]"] ;
41 -> 42 ;
43 [label="X[4] <= 195.0\nentropy = 1.057\nsamples = 54\nvalue = [34, 19, 1]"] ;
42 -> 43 ;
44 [label="entropy = 1.118\nsamples = 45\nvalue = [25, 19, 1]"] ;
43 -> 44 ;
45 [label="entropy = 0.0\nsamples = 9\nvalue = [9, 0, 0]"] ;
43 -> 45 ;
46 [label="entropy = 0.0\nsamples = 13\nvalue = [13, 0, 0]"] ;
42 -> 46 ;
47 [label="X[21] <= 80.5\nentropy = 1.034\nsamples = 248\nvalue = [121, 126, 1]"] ;
41 -> 47 ;
48 [label="X[9] <= 0.715\nentropy = 1.035\nsamples = 242\nvalue = [121, 120, 1]"] ;
47 -> 48 ;
49 [label="entropy = 1.035\nsamples = 237\nvalue = [116, 120, 1]"] ;
48 -> 49 ;
50 [label="entropy = 0.0\nsamples = 5\nvalue = [5, 0, 0]"] ;
48 -> 50 ;
51 [label="entropy = 0.0\nsamples = 6\nvalue = [0, 6, 0]"] ;
47 -> 51 ;
52 [label="X[8] <= 1.53\nentropy = 1.035\nsamples = 3296\nvalue = [1546, 1735, 15]"] ;
0 -> 52 [labeldistance=2.5, labelangle=-45, headlabel="False"] ;
53 [label="X[26] <= 2.792\nentropy = 0.984\nsamples = 720\nvalue = [264, 453, 3]"] ;
52 -> 53 ;
54 [label="X[3] <= 77.5\nentropy = 0.887\nsamples = 396\nvalue = [113, 282, 1]"] ;
53 -> 54 ;
55 [label="X[17] <= 8.5\nentropy = 0.862\nsamples = 393\nvalue = [112, 281, 0]"] ;
54 -> 55 ;
56 [label="X[11] <= 0.762\nentropy = 0.838\nsamples = 370\nvalue = [99, 271, 0]"] ;
55 -> 56 ;
57 [label="entropy = 0.811\nsamples = 352\nvalue = [88, 264, 0]"] ;
56 -> 57 ;
58 [label="entropy = 0.964\nsamples = 18\nvalue = [11, 7, 0]"] ;
56 -> 58 ;
59 [label="X[11] <= 0.677\nentropy = 0.988\nsamples = 23\nvalue = [13, 10, 0]"] ;
55 -> 59 ;
60 [label="entropy = 0.852\nsamples = 18\nvalue = [13, 5, 0]"] ;
59 -> 60 ;
61 [label="entropy = 0.0\nsamples = 5\nvalue = [0, 5, 0]"] ;
59 -> 61 ;
62 [label="X[11] <= 0.326\nentropy = 1.585\nsamples = 3\nvalue = [1, 1, 1]"] ;
54 -> 62 ;
63 [label="X[19] <= 79.5\nentropy = 1.0\nsamples = 2\nvalue = [0, 1, 1]"] ;
62 -> 63 ;
64 [label="entropy = 0.0\nsamples = 1\nvalue = [0, 0, 1]"] ;
63 -> 64 ;
65 [label="entropy = 0.0\nsamples = 1\nvalue = [0, 1, 0]"] ;
63 -> 65 ;
66 [label="entropy = 0.0\nsamples = 1\nvalue = [1, 0, 0]"] ;
62 -> 66 ;
67 [label="X[17] <= 1.5\nentropy = 1.045\nsamples = 324\nvalue = [151, 171, 2]"] ;
53 -> 67 ;
68 [label="X[31] <= 0.004\nentropy = 0.958\nsamples = 68\nvalue = [19, 48, 1]"] ;
67 -> 68 ;
69 [label="X[20] <= 195.0\nentropy = 1.05\nsamples = 55\nvalue = [19, 35, 1]"] ;
68 -> 69 ;
70 [label="entropy = 1.112\nsamples = 46\nvalue = [19, 26, 1]"] ;
69 -> 70 ;
71 [label="entropy = 0.0\nsamples = 9\nvalue = [0, 9, 0]"] ;
69 -> 71 ;
72 [label="entropy = 0.0\nsamples = 13\nvalue = [0, 13, 0]"] ;
68 -> 72 ;
73 [label="X[25] <= 0.302\nentropy = 1.032\nsamples = 256\nvalue = [132, 123, 1]"] ;
67 -> 73 ;
74 [label="X[16] <= 21.0\nentropy = 0.799\nsamples = 33\nvalue = [25, 8, 0]"] ;
73 -> 74 ;
75 [label="entropy = 0.709\nsamples = 31\nvalue = [25, 6, 0]"] ;
74 -> 75 ;
76 [label="entropy = 0.0\nsamples = 2\nvalue = [0, 2, 0]"] ;
74 -> 76 ;
77 [label="X[5] <= 80.5\nentropy = 1.036\nsamples = 223\nvalue = [107, 115, 1]"] ;
73 -> 77 ;
78 [label="entropy = 1.035\nsamples = 217\nvalue = [101, 115, 1]"] ;
77 -> 78 ;
79 [label="entropy = 0.0\nsamples = 6\nvalue = [6, 0, 0]"] ;
77 -> 79 ;
80 [label="X[1] <= 6.5\nentropy = 1.038\nsamples = 2576\nvalue = [1282, 1282, 12]"] ;
52 -> 80 ;
81 [label="X[18] <= 0.5\nentropy = 1.044\nsamples = 2120\nvalue = [1092, 1016, 12]"] ;
80 -> 81 ;
82 [label="X[27] <= 0.752\nentropy = 1.049\nsamples = 1731\nvalue = [852, 868, 11]"] ;
81 -> 82 ;
83 [label="X[25] <= 0.448\nentropy = 1.045\nsamples = 1343\nvalue = [695, 640, 8]"] ;
82 -> 83 ;
84 [label="entropy = 0.995\nsamples = 690\nvalue = [374, 316, 0]"] ;
83 -> 84 ;
85 [label="entropy = 1.083\nsamples = 653\nvalue = [321, 324, 8]"] ;
83 -> 85 ;
86 [label="X[27] <= 0.783\nentropy = 1.033\nsamples = 388\nvalue = [157, 228, 3]"] ;
82 -> 86 ;
87 [label="entropy = 0.946\nsamples = 258\nvalue = [94, 164, 0]"] ;
86 -> 87 ;
88 [label="entropy = 1.135\nsamples = 130\nvalue = [63, 64, 3]"] ;
86 -> 88 ;
89 [label="X[15] <= 0.02\nentropy = 0.982\nsamples = 389\nvalue = [240, 148, 1]"] ;
81 -> 89 ;
90 [label="X[19] <= 75.5\nentropy = 0.974\nsamples = 382\nvalue = [240, 141, 1]"] ;
89 -> 90 ;
91 [label="entropy = 0.96\nsamples = 363\nvalue = [235, 127, 1]"] ;
90 -> 91 ;
92 [label="entropy = 0.831\nsamples = 19\nvalue = [5, 14, 0]"] ;
90 -> 92 ;
93 [label="entropy = 0.0\nsamples = 7\nvalue = [0, 7, 0]"] ;
89 -> 93 ;
94 [label="X[26] <= 2.062\nentropy = 0.98\nsamples = 456\nvalue = [190, 266, 0]"] ;
80 -> 94 ;
95 [label="X[6] <= 1.5\nentropy = 0.832\nsamples = 110\nvalue = [29, 81, 0]"] ;
94 -> 95 ;
96 [label="X[12] <= 0.024\nentropy = 0.722\nsamples = 90\nvalue = [18, 72, 0]"] ;
95 -> 96 ;
97 [label="entropy = 0.663\nsamples = 87\nvalue = [15, 72, 0]"] ;
96 -> 97 ;
98 [label="entropy = 0.0\nsamples = 3\nvalue = [3, 0, 0]"] ;
96 -> 98 ;
99 [label="X[29] <= 1.1\nentropy = 0.993\nsamples = 20\nvalue = [11, 9, 0]"] ;
95 -> 99 ;
100 [label="entropy = 0.0\nsamples = 4\nvalue = [4, 0, 0]"] ;
99 -> 100 ;
101 [label="entropy = 0.989\nsamples = 16\nvalue = [7, 9, 0]"] ;
99 -> 101 ;
102 [label="X[31] <= 0.019\nentropy = 0.997\nsamples = 346\nvalue = [161, 185, 0]"] ;
94 -> 102 ;
103 [label="X[24] <= 1.698\nentropy = 0.995\nsamples = 341\nvalue = [156, 185, 0]"] ;
102 -> 103 ;
104 [label="entropy = 0.0\nsamples = 6\nvalue = [0, 6, 0]"] ;
103 -> 104 ;
105 [label="entropy = 0.997\nsamples = 335\nvalue = [156, 179, 0]"] ;
103 -> 105 ;
106 [label="entropy = 0.0\nsamples = 5\nvalue = [5, 0, 0]"] ;
102 -> 106 ;
}
